digraph Tree {
node [shape=box, style="rounded", color="black", fontname="helvetica"] ;
edge [fontname="helvetica"] ;
0 [label="temp_1 <= 62.0\nsquared_error = 125.2\nsamples = 162\nvalue = 62.1"] ;
1 [label="average <= 46.4\nsquared_error = 51.2\nsamples = 78\nvalue = 52.9"] ;
0 -> 1 [labeldistance=2.5, labelangle=45, headlabel="True"] ;
2 [label="temp_1 <= 39.5\nsquared_error = 9.4\nsamples = 14\nvalue = 39.4"] ;
1 -> 2 ;
3 [label="forecast_acc <= 46.5\nsquared_error = 3.3\nsamples = 3\nvalue = 36.1"] ;
2 -> 3 ;
4 [label="squared_error = 0.0\nsamples = 1\nvalue = 39.0"] ;
3 -> 4 ;
5 [label="squared_error = 0.0\nsamples = 2\nvalue = 35.0"] ;
3 -> 5 ;
6 [label="week_Thurs <= 0.5\nsquared_error = 3.1\nsamples = 11\nvalue = 41.3"] ;
2 -> 6 ;
7 [label="forecast_noaa <= 45.5\nsquared_error = 2.0\nsamples = 10\nvalue = 41.0"] ;
6 -> 7 ;
8 [label="week_Mon <= 0.5\nsquared_error = 1.2\nsamples = 9\nvalue = 40.7"] ;
7 -> 8 ;
9 [label="forecast_acc <= 47.5\nsquared_error = 0.4\nsamples = 7\nvalue = 40.2"] ;
8 -> 9 ;
10 [label="temp_2 <= 44.5\nsquared_error = 0.2\nsamples = 3\nvalue = 40.8"] ;
9 -> 10 ;
11 [label="squared_error = 0.0\nsamples = 1\nvalue = 40.0"] ;
10 -> 11 ;
12 [label="squared_error = 0.0\nsamples = 2\nvalue = 41.0"] ;
10 -> 12 ;
13 [label="temp_1 <= 41.0\nsquared_error = 0.2\nsamples = 4\nvalue = 39.8"] ;
9 -> 13 ;
14 [label="squared_error = 0.0\nsamples = 1\nvalue = 39.0"] ;
13 -> 14 ;
15 [label="squared_error = 0.0\nsamples = 3\nvalue = 40.0"] ;
13 -> 15 ;
16 [label="temp_2 <= 42.5\nsquared_error = 0.2\nsamples = 2\nvalue = 42.5"] ;
8 -> 16 ;
17 [label="squared_error = 0.0\nsamples = 1\nvalue = 42.0"] ;
16 -> 17 ;
18 [label="squared_error = 0.0\nsamples = 1\nvalue = 43.0"] ;
16 -> 18 ;
19 [label="squared_error = 0.0\nsamples = 1\nvalue = 44.0"] ;
7 -> 19 ;
20 [label="squared_error = 0.0\nsamples = 1\nvalue = 45.0"] ;
6 -> 20 ;
21 [label="forecast_under <= 52.5\nsquared_error = 20.5\nsamples = 64\nvalue = 55.3"] ;
1 -> 21 ;
22 [label="forecast_acc <= 51.5\nsquared_error = 10.2\nsamples = 43\nvalue = 53.0"] ;
21 -> 22 ;
23 [label="friend <= 59.0\nsquared_error = 9.1\nsamples = 20\nvalue = 51.6"] ;
22 -> 23 ;
24 [label="forecast_acc <= 49.5\nsquared_error = 5.1\nsamples = 15\nvalue = 50.2"] ;
23 -> 24 ;
25 [label="friend <= 52.0\nsquared_error = 1.7\nsamples = 4\nvalue = 47.2"] ;
24 -> 25 ;
26 [label="squared_error = 0.0\nsamples = 2\nvalue = 46.0"] ;
25 -> 26 ;
27 [label="day <= 20.5\nsquared_error = 0.2\nsamples = 2\nvalue = 48.5"] ;
25 -> 27 ;
28 [label="squared_error = 0.0\nsamples = 1\nvalue = 49.0"] ;
27 -> 28 ;
29 [label="squared_error = 0.0\nsamples = 1\nvalue = 48.0"] ;
27 -> 29 ;
30 [label="temp_2 <= 55.5\nsquared_error = 3.5\nsamples = 11\nvalue = 50.8"] ;
24 -> 30 ;
31 [label="temp_1 <= 48.5\nsquared_error = 2.2\nsamples = 8\nvalue = 52.0"] ;
30 -> 31 ;
32 [label="friend <= 51.5\nsquared_error = 0.2\nsamples = 3\nvalue = 50.5"] ;
31 -> 32 ;
33 [label="squared_error = 0.0\nsamples = 2\nvalue = 50.0"] ;
32 -> 33 ;
34 [label="squared_error = 0.0\nsamples = 1\nvalue = 51.0"] ;
32 -> 34 ;
35 [label="temp_2 <= 46.5\nsquared_error = 1.0\nsamples = 5\nvalue = 53.0"] ;
31 -> 35 ;
36 [label="squared_error = 0.0\nsamples = 1\nvalue = 55.0"] ;
35 -> 36 ;
37 [label="forecast_acc <= 50.5\nsquared_error = 0.2\nsamples = 4\nvalue = 52.6"] ;
35 -> 37 ;
38 [label="squared_error = 0.0\nsamples = 2\nvalue = 53.0"] ;
37 -> 38 ;
39 [label="squared_error = 0.0\nsamples = 2\nvalue = 52.0"] ;
37 -> 39 ;
40 [label="week_Sat <= 0.5\nsquared_error = 1.2\nsamples = 3\nvalue = 49.4"] ;
30 -> 40 ;
41 [label="month <= 6.0\nsquared_error = 0.2\nsamples = 2\nvalue = 50.2"] ;
40 -> 41 ;
42 [label="squared_error = 0.0\nsamples = 1\nvalue = 51.0"] ;
41 -> 42 ;
43 [label="squared_error = 0.0\nsamples = 1\nvalue = 50.0"] ;
41 -> 43 ;
44 [label="squared_error = 0.0\nsamples = 1\nvalue = 48.0"] ;
40 -> 44 ;
45 [label="temp_1 <= 50.0\nsquared_error = 6.6\nsamples = 5\nvalue = 54.1"] ;
23 -> 45 ;
46 [label="forecast_under <= 46.5\nsquared_error = 0.9\nsamples = 2\nvalue = 50.3"] ;
45 -> 46 ;
47 [label="squared_error = 0.0\nsamples = 1\nvalue = 49.0"] ;
46 -> 47 ;
48 [label="squared_error = 0.0\nsamples = 1\nvalue = 51.0"] ;
46 -> 48 ;
49 [label="forecast_noaa <= 46.5\nsquared_error = 2.2\nsamples = 3\nvalue = 55.3"] ;
45 -> 49 ;
50 [label="squared_error = 0.0\nsamples = 2\nvalue = 54.0"] ;
49 -> 50 ;
51 [label="squared_error = 0.0\nsamples = 1\nvalue = 57.0"] ;
49 -> 51 ;
52 [label="temp_1 <= 59.5\nsquared_error = 7.4\nsamples = 23\nvalue = 54.4"] ;
22 -> 52 ;
53 [label="temp_1 <= 50.0\nsquared_error = 5.4\nsamples = 22\nvalue = 54.1"] ;
52 -> 53 ;
54 [label="temp_2 <= 51.5\nsquared_error = 1.4\nsamples = 4\nvalue = 52.1"] ;
53 -> 54 ;
55 [label="squared_error = 0.0\nsamples = 1\nvalue = 54.0"] ;
54 -> 55 ;
56 [label="week_Tues <= 0.5\nsquared_error = 0.2\nsamples = 3\nvalue = 51.5"] ;
54 -> 56 ;
57 [label="squared_error = 0.0\nsamples = 2\nvalue = 52.0"] ;
56 -> 57 ;
58 [label="squared_error = 0.0\nsamples = 1\nvalue = 51.0"] ;
56 -> 58 ;
59 [label="week_Sat <= 0.5\nsquared_error = 5.1\nsamples = 18\nvalue = 54.7"] ;
53 -> 59 ;
60 [label="temp_1 <= 51.5\nsquared_error = 4.0\nsamples = 16\nvalue = 55.1"] ;
59 -> 60 ;
61 [label="temp_2 <= 50.0\nsquared_error = 2.0\nsamples = 2\nvalue = 58.0"] ;
60 -> 61 ;
62 [label="squared_error = 0.0\nsamples = 1\nvalue = 57.0"] ;
61 -> 62 ;
63 [label="squared_error = 0.0\nsamples = 1\nvalue = 60.0"] ;
61 -> 63 ;
64 [label="friend <= 70.5\nsquared_error = 2.9\nsamples = 14\nvalue = 54.7"] ;
60 -> 64 ;
65 [label="temp_1 <= 54.0\nsquared_error = 2.0\nsamples = 13\nvalue = 54.4"] ;
64 -> 65 ;
66 [label="day <= 19.5\nsquared_error = 2.5\nsamples = 5\nvalue = 53.2"] ;
65 -> 66 ;
67 [label="forecast_noaa <= 49.0\nsquared_error = 0.2\nsamples = 2\nvalue = 54.7"] ;
66 -> 67 ;
68 [label="squared_error = 0.0\nsamples = 1\nvalue = 54.0"] ;
67 -> 68 ;
69 [label="squared_error = 0.0\nsamples = 1\nvalue = 55.0"] ;
67 -> 69 ;
70 [label="forecast_under <= 50.5\nsquared_error = 0.2\nsamples = 3\nvalue = 51.7"] ;
66 -> 70 ;
71 [label="squared_error = 0.0\nsamples = 2\nvalue = 52.0"] ;
70 -> 71 ;
72 [label="squared_error = 0.0\nsamples = 1\nvalue = 51.0"] ;
70 -> 72 ;
73 [label="forecast_under <= 47.5\nsquared_error = 0.9\nsamples = 8\nvalue = 55.0"] ;
65 -> 73 ;
74 [label="squared_error = 0.0\nsamples = 1\nvalue = 52.0"] ;
73 -> 74 ;
75 [label="day <= 15.5\nsquared_error = 0.2\nsamples = 7\nvalue = 55.2"] ;
73 -> 75 ;
76 [label="squared_error = 0.0\nsamples = 5\nvalue = 55.0"] ;
75 -> 76 ;
77 [label="squared_error = 0.0\nsamples = 2\nvalue = 56.0"] ;
75 -> 77 ;
78 [label="squared_error = 0.0\nsamples = 1\nvalue = 59.0"] ;
64 -> 78 ;
79 [label="friend <= 49.5\nsquared_error = 3.6\nsamples = 2\nvalue = 51.7"] ;
59 -> 79 ;
80 [label="squared_error = 0.0\nsamples = 1\nvalue = 53.0"] ;
79 -> 80 ;
81 [label="squared_error = 0.0\nsamples = 1\nvalue = 49.0"] ;
79 -> 81 ;
82 [label="squared_error = 0.0\nsamples = 1\nvalue = 63.0"] ;
52 -> 82 ;
83 [label="temp_2 <= 71.5\nsquared_error = 11.0\nsamples = 21\nvalue = 59.7"] ;
21 -> 83 ;
84 [label="temp_1 <= 56.0\nsquared_error = 7.4\nsamples = 20\nvalue = 59.2"] ;
83 -> 84 ;
85 [label="temp_1 <= 53.5\nsquared_error = 3.0\nsamples = 5\nvalue = 56.1"] ;
84 -> 85 ;
86 [label="squared_error = 0.0\nsamples = 1\nvalue = 54.0"] ;
85 -> 86 ;
87 [label="forecast_under <= 59.0\nsquared_error = 1.6\nsamples = 4\nvalue = 57.0"] ;
85 -> 87 ;
88 [label="week_Wed <= 0.5\nsquared_error = 0.8\nsamples = 3\nvalue = 56.5"] ;
87 -> 88 ;
89 [label="squared_error = 0.0\nsamples = 2\nvalue = 57.0"] ;
88 -> 89 ;
90 [label="squared_error = 0.0\nsamples = 1\nvalue = 55.0"] ;
88 -> 90 ;
91 [label="squared_error = 0.0\nsamples = 1\nvalue = 59.0"] ;
87 -> 91 ;
92 [label="temp_2 <= 67.0\nsquared_error = 5.6\nsamples = 15\nvalue = 60.0"] ;
84 -> 92 ;
93 [label="week_Wed <= 0.5\nsquared_error = 4.8\nsamples = 14\nvalue = 60.5"] ;
92 -> 93 ;
94 [label="temp_2 <= 58.0\nsquared_error = 2.2\nsamples = 11\nvalue = 61.0"] ;
93 -> 94 ;
95 [label="day <= 7.0\nsquared_error = 1.4\nsamples = 3\nvalue = 62.8"] ;
94 -> 95 ;
96 [label="squared_error = 0.0\nsamples = 1\nvalue = 65.0"] ;
95 -> 96 ;
97 [label="day <= 14.5\nsquared_error = 0.2\nsamples = 2\nvalue = 62.2"] ;
95 -> 97 ;
98 [label="squared_error = 0.0\nsamples = 1\nvalue = 62.0"] ;
97 -> 98 ;
99 [label="squared_error = 0.0\nsamples = 1\nvalue = 63.0"] ;
97 -> 99 ;
100 [label="day <= 27.5\nsquared_error = 1.1\nsamples = 8\nvalue = 60.4"] ;
94 -> 100 ;
101 [label="week_Sat <= 0.5\nsquared_error = 0.3\nsamples = 7\nvalue = 60.2"] ;
100 -> 101 ;
102 [label="month <= 10.5\nsquared_error = 0.1\nsamples = 6\nvalue = 60.1"] ;
101 -> 102 ;
103 [label="squared_error = 0.0\nsamples = 5\nvalue = 60.0"] ;
102 -> 103 ;
104 [label="squared_error = 0.0\nsamples = 1\nvalue = 61.0"] ;
102 -> 104 ;
105 [label="squared_error = 0.0\nsamples = 1\nvalue = 62.0"] ;
101 -> 105 ;
106 [label="squared_error = 0.0\nsamples = 1\nvalue = 64.0"] ;
100 -> 106 ;
107 [label="average <= 56.3\nsquared_error = 6.9\nsamples = 3\nvalue = 56.7"] ;
93 -> 107 ;
108 [label="squared_error = 0.0\nsamples = 1\nvalue = 53.0"] ;
107 -> 108 ;
109 [label="temp_2 <= 59.0\nsquared_error = 0.2\nsamples = 2\nvalue = 58.5"] ;
107 -> 109 ;
110 [label="squared_error = 0.0\nsamples = 1\nvalue = 59.0"] ;
109 -> 110 ;
111 [label="squared_error = 0.0\nsamples = 1\nvalue = 58.0"] ;
109 -> 111 ;
112 [label="squared_error = 0.0\nsamples = 1\nvalue = 57.0"] ;
92 -> 112 ;
113 [label="squared_error = 0.0\nsamples = 1\nvalue = 68.0"] ;
83 -> 113 ;
114 [label="temp_1 <= 71.5\nsquared_error = 41.2\nsamples = 84\nvalue = 70.7"] ;
0 -> 114 [labeldistance=2.5, labelangle=-45, headlabel="False"] ;
115 [label="temp_1 <= 66.5\nsquared_error = 32.8\nsamples = 46\nvalue = 67.5"] ;
114 -> 115 ;
116 [label="temp_2 <= 63.5\nsquared_error = 20.2\nsamples = 18\nvalue = 63.5"] ;
115 -> 116 ;
117 [label="day <= 6.0\nsquared_error = 3.0\nsamples = 5\nvalue = 68.0"] ;
116 -> 117 ;
118 [label="squared_error = 0.0\nsamples = 1\nvalue = 65.0"] ;
117 -> 118 ;
119 [label="friend <= 53.0\nsquared_error = 1.4\nsamples = 4\nvalue = 68.6"] ;
117 -> 119 ;
120 [label="squared_error = 0.0\nsamples = 1\nvalue = 71.0"] ;
119 -> 120 ;
121 [label="squared_error = 0.0\nsamples = 3\nvalue = 68.0"] ;
119 -> 121 ;
122 [label="average <= 65.0\nsquared_error = 16.8\nsamples = 13\nvalue = 61.9"] ;
116 -> 122 ;
123 [label="week_Fri <= 0.5\nsquared_error = 9.6\nsamples = 6\nvalue = 58.9"] ;
122 -> 123 ;
124 [label="forecast_acc <= 60.5\nsquared_error = 3.2\nsamples = 4\nvalue = 57.3"] ;
123 -> 124 ;
125 [label="squared_error = 0.0\nsamples = 2\nvalue = 59.0"] ;
124 -> 125 ;
126 [label="forecast_under <= 62.0\nsquared_error = 0.9\nsamples = 2\nvalue = 55.7"] ;
124 -> 126 ;
127 [label="squared_error = 0.0\nsamples = 1\nvalue = 55.0"] ;
126 -> 127 ;
128 [label="squared_error = 0.0\nsamples = 1\nvalue = 57.0"] ;
126 -> 128 ;
129 [label="month <= 10.5\nsquared_error = 0.2\nsamples = 2\nvalue = 63.5"] ;
123 -> 129 ;
130 [label="squared_error = 0.0\nsamples = 1\nvalue = 64.0"] ;
129 -> 130 ;
131 [label="squared_error = 0.0\nsamples = 1\nvalue = 63.0"] ;
129 -> 131 ;
132 [label="temp_2 <= 69.0\nsquared_error = 9.0\nsamples = 7\nvalue = 64.4"] ;
122 -> 132 ;
133 [label="forecast_acc <= 72.0\nsquared_error = 2.4\nsamples = 5\nvalue = 67.0"] ;
132 -> 133 ;
134 [label="month <= 7.0\nsquared_error = 0.2\nsamples = 4\nvalue = 66.2"] ;
133 -> 134 ;
135 [label="squared_error = 0.0\nsamples = 3\nvalue = 66.0"] ;
134 -> 135 ;
136 [label="squared_error = 0.0\nsamples = 1\nvalue = 67.0"] ;
134 -> 136 ;
137 [label="squared_error = 0.0\nsamples = 1\nvalue = 70.0"] ;
133 -> 137 ;
138 [label="temp_1 <= 65.0\nsquared_error = 2.2\nsamples = 2\nvalue = 61.8"] ;
132 -> 138 ;
139 [label="squared_error = 0.0\nsamples = 1\nvalue = 63.0"] ;
138 -> 139 ;
140 [label="squared_error = 0.0\nsamples = 1\nvalue = 60.0"] ;
138 -> 140 ;
141 [label="friend <= 83.0\nsquared_error = 27.0\nsamples = 28\nvalue = 69.5"] ;
115 -> 141 ;
142 [label="month <= 9.5\nsquared_error = 24.3\nsamples = 22\nvalue = 68.1"] ;
141 -> 142 ;
143 [label="forecast_noaa <= 54.5\nsquared_error = 22.2\nsamples = 19\nvalue = 69.0"] ;
142 -> 143 ;
144 [label="squared_error = 0.0\nsamples = 1\nvalue = 60.0"] ;
143 -> 144 ;
145 [label="friend <= 55.5\nsquared_error = 18.0\nsamples = 18\nvalue = 69.6"] ;
143 -> 145 ;
146 [label="forecast_noaa <= 61.0\nsquared_error = 2.2\nsamples = 2\nvalue = 78.5"] ;
145 -> 146 ;
147 [label="squared_error = 0.0\nsamples = 1\nvalue = 77.0"] ;
146 -> 147 ;
148 [label="squared_error = 0.0\nsamples = 1\nvalue = 80.0"] ;
146 -> 148 ;
149 [label="forecast_under <= 64.5\nsquared_error = 13.3\nsamples = 16\nvalue = 69.0"] ;
145 -> 149 ;
150 [label="forecast_under <= 60.0\nsquared_error = 1.0\nsamples = 2\nvalue = 74.0"] ;
149 -> 150 ;
151 [label="squared_error = 0.0\nsamples = 1\nvalue = 73.0"] ;
150 -> 151 ;
152 [label="squared_error = 0.0\nsamples = 1\nvalue = 75.0"] ;
150 -> 152 ;
153 [label="month <= 6.5\nsquared_error = 10.5\nsamples = 14\nvalue = 68.2"] ;
149 -> 153 ;
154 [label="week_Mon <= 0.5\nsquared_error = 0.7\nsamples = 3\nvalue = 65.0"] ;
153 -> 154 ;
155 [label="week_Sat <= 0.5\nsquared_error = 0.2\nsamples = 2\nvalue = 64.5"] ;
154 -> 155 ;
156 [label="squared_error = 0.0\nsamples = 1\nvalue = 64.0"] ;
155 -> 156 ;
157 [label="squared_error = 0.0\nsamples = 1\nvalue = 65.0"] ;
155 -> 157 ;
158 [label="squared_error = 0.0\nsamples = 1\nvalue = 66.0"] ;
154 -> 158 ;
159 [label="month <= 8.0\nsquared_error = 9.5\nsamples = 11\nvalue = 69.2"] ;
153 -> 159 ;
160 [label="squared_error = 0.0\nsamples = 1\nvalue = 74.0"] ;
159 -> 160 ;
161 [label="forecast_noaa <= 64.5\nsquared_error = 7.5\nsamples = 10\nvalue = 68.6"] ;
159 -> 161 ;
162 [label="squared_error = 0.0\nsamples = 1\nvalue = 76.0"] ;
161 -> 162 ;
163 [label="week_Thurs <= 0.5\nsquared_error = 4.4\nsamples = 9\nvalue = 68.1"] ;
161 -> 163 ;
164 [label="friend <= 61.5\nsquared_error = 1.2\nsamples = 7\nvalue = 67.2"] ;
163 -> 164 ;
165 [label="squared_error = 0.0\nsamples = 1\nvalue = 64.0"] ;
164 -> 165 ;
166 [label="forecast_under <= 74.0\nsquared_error = 0.2\nsamples = 6\nvalue = 67.5"] ;
164 -> 166 ;
167 [label="friend <= 65.0\nsquared_error = 0.1\nsamples = 4\nvalue = 67.2"] ;
166 -> 167 ;
168 [label="squared_error = 0.0\nsamples = 1\nvalue = 68.0"] ;
167 -> 168 ;
169 [label="squared_error = 0.0\nsamples = 3\nvalue = 67.0"] ;
167 -> 169 ;
170 [label="squared_error = 0.0\nsamples = 2\nvalue = 68.0"] ;
166 -> 170 ;
171 [label="forecast_under <= 71.0\nsquared_error = 4.7\nsamples = 2\nvalue = 70.8"] ;
163 -> 171 ;
172 [label="squared_error = 0.0\nsamples = 1\nvalue = 67.0"] ;
171 -> 172 ;
173 [label="squared_error = 0.0\nsamples = 1\nvalue = 72.0"] ;
171 -> 173 ;
174 [label="week_Sun <= 0.5\nsquared_error = 8.6\nsamples = 3\nvalue = 63.3"] ;
142 -> 174 ;
175 [label="week_Wed <= 0.5\nsquared_error = 0.6\nsamples = 2\nvalue = 64.6"] ;
174 -> 175 ;
176 [label="squared_error = 0.0\nsamples = 1\nvalue = 63.0"] ;
175 -> 176 ;
177 [label="squared_error = 0.0\nsamples = 1\nvalue = 65.0"] ;
175 -> 177 ;
178 [label="squared_error = 0.0\nsamples = 1\nvalue = 57.0"] ;
174 -> 178 ;
179 [label="friend <= 86.5\nsquared_error = 7.3\nsamples = 6\nvalue = 74.3"] ;
141 -> 179 ;
180 [label="average <= 70.8\nsquared_error = 2.0\nsamples = 2\nvalue = 78.0"] ;
179 -> 180 ;
181 [label="squared_error = 0.0\nsamples = 1\nvalue = 79.0"] ;
180 -> 181 ;
182 [label="squared_error = 0.0\nsamples = 1\nvalue = 76.0"] ;
180 -> 182 ;
183 [label="month <= 6.5\nsquared_error = 2.1\nsamples = 4\nvalue = 72.9"] ;
179 -> 183 ;
184 [label="squared_error = 0.0\nsamples = 2\nvalue = 71.0"] ;
183 -> 184 ;
185 [label="squared_error = 0.0\nsamples = 2\nvalue = 74.0"] ;
183 -> 185 ;
186 [label="forecast_acc <= 66.5\nsquared_error = 24.1\nsamples = 38\nvalue = 74.6"] ;
114 -> 186 ;
187 [label="day <= 5.5\nsquared_error = 26.7\nsamples = 5\nvalue = 67.8"] ;
186 -> 187 ;
188 [label="friend <= 55.0\nsquared_error = 2.2\nsamples = 2\nvalue = 72.5"] ;
187 -> 188 ;
189 [label="squared_error = 0.0\nsamples = 1\nvalue = 71.0"] ;
188 -> 189 ;
190 [label="squared_error = 0.0\nsamples = 1\nvalue = 74.0"] ;
188 -> 190 ;
191 [label="temp_1 <= 99.5\nsquared_error = 6.0\nsamples = 3\nvalue = 63.0"] ;
187 -> 191 ;
192 [label="forecast_under <= 64.5\nsquared_error = 0.9\nsamples = 2\nvalue = 64.3"] ;
191 -> 192 ;
193 [label="squared_error = 0.0\nsamples = 1\nvalue = 63.0"] ;
192 -> 193 ;
194 [label="squared_error = 0.0\nsamples = 1\nvalue = 65.0"] ;
192 -> 194 ;
195 [label="squared_error = 0.0\nsamples = 1\nvalue = 59.0"] ;
191 -> 195 ;
196 [label="temp_1 <= 83.0\nsquared_error = 15.6\nsamples = 33\nvalue = 75.6"] ;
186 -> 196 ;
197 [label="forecast_noaa <= 64.5\nsquared_error = 11.1\nsamples = 29\nvalue = 75.0"] ;
196 -> 197 ;
198 [label="average <= 63.9\nsquared_error = 3.6\nsamples = 3\nvalue = 78.3"] ;
197 -> 198 ;
199 [label="squared_error = 0.0\nsamples = 1\nvalue = 81.0"] ;
198 -> 199 ;
200 [label="squared_error = 0.0\nsamples = 2\nvalue = 77.0"] ;
198 -> 200 ;
201 [label="friend <= 65.0\nsquared_error = 10.3\nsamples = 26\nvalue = 74.5"] ;
197 -> 201 ;
202 [label="day <= 19.5\nsquared_error = 4.8\nsamples = 8\nvalue = 71.7"] ;
201 -> 202 ;
203 [label="friend <= 59.0\nsquared_error = 2.1\nsamples = 5\nvalue = 72.9"] ;
202 -> 203 ;
204 [label="squared_error = 0.0\nsamples = 2\nvalue = 75.0"] ;
203 -> 204 ;
205 [label="forecast_acc <= 79.5\nsquared_error = 0.4\nsamples = 3\nvalue = 72.0"] ;
203 -> 205 ;
206 [label="average <= 75.5\nsquared_error = 0.2\nsamples = 2\nvalue = 71.8"] ;
205 -> 206 ;
207 [label="squared_error = 0.0\nsamples = 1\nvalue = 71.0"] ;
206 -> 207 ;
208 [label="squared_error = 0.0\nsamples = 1\nvalue = 72.0"] ;
206 -> 208 ;
209 [label="squared_error = 0.0\nsamples = 1\nvalue = 73.0"] ;
205 -> 209 ;
210 [label="month <= 7.0\nsquared_error = 0.7\nsamples = 3\nvalue = 69.0"] ;
202 -> 210 ;
211 [label="squared_error = 0.0\nsamples = 1\nvalue = 68.0"] ;
210 -> 211 ;
212 [label="month <= 8.5\nsquared_error = 0.2\nsamples = 2\nvalue = 69.5"] ;
210 -> 212 ;
213 [label="squared_error = 0.0\nsamples = 1\nvalue = 70.0"] ;
212 -> 213 ;
214 [label="squared_error = 0.0\nsamples = 1\nvalue = 69.0"] ;
212 -> 214 ;
215 [label="average <= 77.2\nsquared_error = 8.8\nsamples = 18\nvalue = 75.4"] ;
201 -> 215 ;
216 [label="average <= 76.4\nsquared_error = 7.2\nsamples = 17\nvalue = 74.9"] ;
215 -> 216 ;
217 [label="temp_2 <= 69.5\nsquared_error = 6.1\nsamples = 13\nvalue = 75.7"] ;
216 -> 217 ;
218 [label="week_Fri <= 0.5\nsquared_error = 9.0\nsamples = 2\nvalue = 71.0"] ;
217 -> 218 ;
219 [label="squared_error = 0.0\nsamples = 1\nvalue = 68.0"] ;
218 -> 219 ;
220 [label="squared_error = 0.0\nsamples = 1\nvalue = 74.0"] ;
218 -> 220 ;
221 [label="average <= 76.1\nsquared_error = 3.4\nsamples = 11\nvalue = 76.2"] ;
217 -> 221 ;
222 [label="day <= 18.0\nsquared_error = 2.0\nsamples = 10\nvalue = 75.7"] ;
221 -> 222 ;
223 [label="temp_2 <= 71.5\nsquared_error = 1.9\nsamples = 7\nvalue = 76.2"] ;
222 -> 223 ;
224 [label="forecast_under <= 72.5\nsquared_error = 0.2\nsamples = 2\nvalue = 74.3"] ;
223 -> 224 ;
225 [label="squared_error = 0.0\nsamples = 1\nvalue = 75.0"] ;
224 -> 225 ;
226 [label="squared_error = 0.0\nsamples = 1\nvalue = 74.0"] ;
224 -> 226 ;
227 [label="week_Wed <= 0.5\nsquared_error = 0.8\nsamples = 5\nvalue = 76.9"] ;
223 -> 227 ;
228 [label="day <= 5.5\nsquared_error = 0.2\nsamples = 4\nvalue = 76.6"] ;
227 -> 228 ;
229 [label="squared_error = 0.0\nsamples = 1\nvalue = 76.0"] ;
228 -> 229 ;
230 [label="squared_error = 0.0\nsamples = 3\nvalue = 77.0"] ;
228 -> 230 ;
231 [label="squared_error = 0.0\nsamples = 1\nvalue = 79.0"] ;
227 -> 231 ;
232 [label="week_Thurs <= 0.5\nsquared_error = 0.6\nsamples = 3\nvalue = 74.7"] ;
222 -> 232 ;
233 [label="squared_error = 0.0\nsamples = 2\nvalue = 75.0"] ;
232 -> 233 ;
234 [label="squared_error = 0.0\nsamples = 1\nvalue = 73.0"] ;
232 -> 234 ;
235 [label="squared_error = 0.0\nsamples = 1\nvalue = 80.0"] ;
221 -> 235 ;
236 [label="week_Fri <= 0.5\nsquared_error = 0.3\nsamples = 4\nvalue = 72.0"] ;
216 -> 236 ;
237 [label="forecast_under <= 76.0\nsquared_error = 0.2\nsamples = 3\nvalue = 72.2"] ;
236 -> 237 ;
238 [label="squared_error = 0.0\nsamples = 1\nvalue = 73.0"] ;
237 -> 238 ;
239 [label="squared_error = 0.0\nsamples = 2\nvalue = 72.0"] ;
237 -> 239 ;
240 [label="squared_error = 0.0\nsamples = 1\nvalue = 71.0"] ;
236 -> 240 ;
241 [label="squared_error = 0.0\nsamples = 1\nvalue = 80.0"] ;
215 -> 241 ;
242 [label="temp_2 <= 84.0\nsquared_error = 21.9\nsamples = 4\nvalue = 80.7"] ;
196 -> 242 ;
243 [label="temp_2 <= 80.5\nsquared_error = 16.5\nsamples = 3\nvalue = 83.0"] ;
242 -> 243 ;
244 [label="squared_error = 0.0\nsamples = 1\nvalue = 79.0"] ;
243 -> 244 ;
245 [label="temp_2 <= 82.0\nsquared_error = 1.0\nsamples = 2\nvalue = 87.0"] ;
243 -> 245 ;
246 [label="squared_error = 0.0\nsamples = 1\nvalue = 86.0"] ;
245 -> 246 ;
247 [label="squared_error = 0.0\nsamples = 1\nvalue = 88.0"] ;
245 -> 247 ;
248 [label="squared_error = 0.0\nsamples = 1\nvalue = 76.0"] ;
242 -> 248 ;
}